{"type":"NeuralNetwork","sizes":[256,16,10],"layers":[{"weights":[],"biases":[]},{"weights":[[0.1366332322359085,0.049774330109357834,0.14480940997600555,-0.13343660533428192,0.1739981770515442,-0.07138087600469589,-0.06633630394935608,0.0715658962726593,0.05461885407567024,0.09511173516511917,-0.06300753355026245,0.18221397697925568,-0.19463159143924713,0.0012704117689281702,0.12862807512283325,-0.07692556083202362,-0.12266603857278824,-0.020643040537834167,0.12536628544330597,-0.08347740769386292,0.15681207180023193,0.19653631746768951,-0.02010667696595192,0.09261246770620346,-0.167252779006958,0.12313972413539886,-0.08011213690042496,-0.012693359516561031,-0.030741341412067413,0.1628981977701187,0.07536965608596802,-0.18761761486530304,-0.08032579720020294,0.045144692063331604,0.10000257939100266,-0.061141062527894974,-0.0021607696544378996,0.4000453054904938,0.3300376236438751,0.045378923416137695,-0.11614982038736343,0.13207025825977325,-0.097769595682621,-0.1948477327823639,0.17670832574367523,0.07209712266921997,-0.014551202766597271,-0.07733232527971268,-0.1226549744606018,0.0028692325577139854,-0.13750450313091278,0.07571219652891159,0.19538821280002594,0.5146657228469849,0.3175014853477478,-0.015351077541708946,-0.15119203925132751,-0.6178878545761108,-0.8985592722892761,-0.16779851913452148,-0.3590763509273529,-0.053838614374399185,0.09508991241455078,0.09672929346561432,-0.15721505880355835,0.16872312128543854,-0.06303630024194717,0.3880188465118408,0.2969878315925598,0.6359150409698486,0.48124098777770996,0.010544102638959885,0.07992351055145264,-0.010563086718320847,-0.25389912724494934,0.4568656086921692,-0.32888293266296387,0.12373572587966919,0.01386505737900734,-0.09836039692163467,-0.06961872428655624,0.07128466665744781,-0.03537754714488983,0.29269295930862427,0.24273152649402618,0.4765159487724304,0.2409195899963379,0.43242347240448,0.36584416031837463,-0.23279976844787598,0.17692098021507263,0.38874194025993347,0.11356190592050552,0.1365848183631897,0.016591252759099007,0.07970704883337021,-0.09565508365631104,0.1391810029745102,-0.10990411043167114,0.006592360325157642,-0.7852226495742798,-0.0655917227268219,-0.3561689555644989,-0.16915538907051086,0.0030326154083013535,0.05970335006713867,0.28394412994384766,0.38252460956573486,0.09077989310026169,0.23651205003261566,-0.06734888255596161,0.006582234986126423,0.03258214890956879,-0.03859252110123634,0.06026073917746544,-0.8296822905540466,-0.7601122856140137,-0.22313334047794342,-0.2515818774700165,-0.2889249920845032,0.11347562819719315,0.22869263589382172,0.5888791084289551,0.6410835981369019,-0.06328628212213516,0.20268729329109192,0.1214556097984314,-0.1281789392232895,-0.14487528800964355,-0.11588473618030548,-0.04629766568541527,-0.33813217282295227,-0.38467225432395935,0.08317174017429352,-0.019407544285058975,-0.14158844947814941,0.4339708983898163,0.15834707021713257,0.2260570526123047,0.34966394305229187,-0.07047796249389648,0.22082491219043732,0.19865576922893524,-0.004946304950863123,-0.11648537218570709,-0.14788144826889038,0.1486973613500595,-0.5644540786743164,-0.5733523964881897,0.11961395293474197,0.5174137949943542,-0.3665911853313446,-0.13586434721946716,0.12159299105405807,-0.34129008650779724,-0.035555317997932434,0.03772614151239395,0.3288629353046417,-0.07184374332427979,0.0790514424443245,-0.22562851011753082,0.16812372207641602,0.08721569180488586,-0.002257910557091236,0.19981519877910614,0.11365516483783722,0.19145813584327698,0.1432010680437088,0.06425397098064423,-0.021266816183924675,-0.375396192073822,-0.42881134152412415,-0.18075066804885864,0.08145016431808472,-0.15904058516025543,0.05376618728041649,0.008454392664134502,0.028738614171743393,-0.03982798010110855,0.27218136191368103,0.543952226638794,0.27208060026168823,-0.2031601220369339,0.09874438494443893,-0.38556334376335144,-0.5298649072647095,-0.0024998984299600124,0.24056842923164368,-0.06275305896997452,-0.05887439101934433,0.11372313648462296,-0.1428833156824112,0.04085444658994675,-0.1501787006855011,-0.2194349467754364,-0.18489892780780792,0.3301014006137848,0.4301142990589142,0.20659589767456055,-0.17894645035266876,-0.37830352783203125,0.033321887254714966,0.026889540255069733,-0.21407471597194672,-0.009906773455440998,0.028766967356204987,0.14981743693351746,0.271359920501709,0.043628912419080734,-0.21581518650054932,0.09796169400215149,-0.0777953714132309,0.10787148028612137,0.35507771372795105,-0.004305477719753981,0.6371681094169617,0.3751005530357361,-0.23776164650917053,-0.18898801505565643,-0.052242618054151535,-0.05439387261867523,-0.33604782819747925,0.03955956920981407,-0.07654495537281036,0.1425471305847168,0.14941450953483582,0.22104769945144653,0.04943656921386719,0.1535729020833969,0.10068176686763763,-0.1718478798866272,-0.01743168942630291,0.17558632791042328,0.075163334608078,-0.11598455905914307,0.0613330602645874,-0.2216527909040451,-0.28936895728111267,-0.24138253927230835,-0.1175256222486496,-0.06804530322551727,-0.04276590421795845,-0.14592933654785156,0.19994176924228668,-0.10240073502063751,0.2546989917755127,0.26583242416381836,-0.027793901041150093,-0.04055513069033623,0.003185216337442398,-0.2540998160839081,-0.23166868090629578,0.0516560859978199,-0.09884902089834213,-0.10342241078615189,-0.05248359963297844],[0.17337501049041748,0.10786516219377518,0.009287294000387192,0.06862997263669968,0.11894001066684723,0.07184075564146042,-0.11701062321662903,0.1443021446466446,0.07964135706424713,-0.06749409437179565,-0.06954991072416306,0.1779792755842209,-0.03627549111843109,0.1993097960948944,0.1372731328010559,-0.19244593381881714,-0.17784959077835083,-0.05845034867525101,-0.06093163415789604,0.07485654950141907,-0.11554752290248871,0.0462915413081646,0.10490700602531433,0.08236365020275116,0.15458814799785614,0.018030041828751564,-0.17477703094482422,-0.14636164903640747,-0.04263781011104584,-0.14319275319576263,0.14352896809577942,-0.016195224598050117,-0.002585324691608548,-0.15240073204040527,0.03687715530395508,-0.007330610882490873,-0.13325636088848114,-0.2593550980091095,-0.4477972686290741,-0.3541797697544098,-0.23338542878627777,0.056147195398807526,0.19831153750419617,0.1913977712392807,-0.12218382954597473,0.13217321038246155,0.01374637708067894,-0.0858524739742279,0.1263863891363144,-0.06970993429422379,0.11341964453458786,-0.2840500771999359,-0.3719610273838043,-0.17949801683425903,-0.25853389501571655,-0.06648803502321243,0.06479683518409729,0.4681170582771301,0.5330432653427124,0.20059843361377716,0.031125355511903763,0.043375179171562195,-0.11883098632097244,-0.0055731856264173985,0.05014972388744354,-0.0008918458479456604,0.019689444452524185,-0.2911209166049957,-0.31140264868736267,-0.5073444843292236,-0.4539151191711426,-0.40295594930648804,-0.16541804373264313,-0.003109017852693796,0.43796902894973755,0.06375562399625778,0.204913929104805,-0.02378358319401741,-0.14884044229984283,0.08397001773118973,-0.0595773309469223,0.10169603675603867,0.3055466115474701,0.031340405344963074,-0.23107944428920746,0.1783292442560196,-0.14359121024608612,-0.2501520812511444,0.09105350077152252,0.09405800700187683,0.15003445744514465,-0.048215270042419434,0.0584779791533947,0.13208748400211334,-0.17376738786697388,0.003988422453403473,0.15069448947906494,0.06268730014562607,0.11633779108524323,0.5186394453048706,0.7440223097801208,0.24408626556396484,0.21342572569847107,0.6181017160415649,-0.04357413947582245,0.508608341217041,0.21072730422019958,-0.06810365617275238,-0.12273610383272171,-0.2650240361690521,-0.16986851394176483,0.11169790476560593,0.04658134654164314,0.4490051567554474,0.2509637176990509,0.6599441766738892,0.8564752340316772,0.13264696300029755,0.04551286622881889,0.31143760681152344,-0.16676953434944153,-0.1177065446972847,-0.04914628341794014,0.2059362232685089,0.13026995956897736,-0.13906267285346985,-0.20496711134910583,-0.1995444893836975,0.021107982844114304,0.3412920832633972,0.12229163944721222,0.14024890959262848,0.048164546489715576,0.0023159219417721033,-0.31921708583831787,-0.03331330046057701,-0.1694805771112442,-0.3017498850822449,-0.28591275215148926,-0.038098543882369995,0.3738357722759247,0.22244246304035187,-0.35003799200057983,0.15413272380828857,-0.030114976689219475,0.22850385308265686,0.27171921730041504,0.24656231701374054,0.5712927579879761,0.2926245331764221,-0.5834031105041504,-0.0974760353565216,-0.35326409339904785,-0.3886849880218506,-0.12351175397634506,-0.4752299189567566,-0.19256123900413513,0.13177922368049622,-0.27695000171661377,0.22051863372325897,0.07359249889850616,0.2308957427740097,-0.08999047428369522,-0.17754222452640533,-0.21716080605983734,-0.44341719150543213,-0.2749103009700775,-0.3668314814567566,-0.40020811557769775,-0.5001973509788513,-0.4195411801338196,-0.13924694061279297,0.0005207931972108781,0.017375847324728966,-0.04940060153603554,-0.06059325486421585,0.1545320600271225,0.30166906118392944,0.14215677976608276,-0.17981141805648804,-0.44807764887809753,-0.1542079895734787,0.22801794111728668,0.27651581168174744,-0.030576886609196663,0.09492988884449005,-0.10469673573970795,-0.42833998799324036,-0.07115060836076736,0.03890377655625343,0.2569170892238617,0.22617186605930328,0.15371805429458618,0.17314298450946808,0.381807416677475,0.31086480617523193,-0.47811761498451233,-0.3594346344470978,0.2486981749534607,0.28998351097106934,0.4984293580055237,-0.3857840895652771,-0.7591972947120667,-0.10339952260255814,0.27755284309387207,-0.10086359828710556,0.22185222804546356,-0.08486379683017731,-0.19142064452171326,0.18155057728290558,0.005133243277668953,0.0837293341755867,0.14459013938903809,0.11145485937595367,0.12082690745592117,-0.040764592587947845,-0.08230023831129074,-0.0485411211848259,-0.3308742940425873,-0.011437787674367428,0.4822562336921692,0.0811341255903244,0.006760599557310343,0.0990166962146759,-0.12016251683235168,-0.15808381140232086,-0.13152432441711426,0.2747349739074707,-0.061322879046201706,-0.3106839954853058,0.10851416736841202,0.09018155932426453,0.021794462576508522,0.06717219203710556,0.06201973930001259,0.08736667782068253,0.2036123424768448,-0.09336719661951065,-0.029589049518108368,-0.16195887327194214,0.024745291098952293,-0.04391799122095108,0.18066726624965668,0.07908760011196136,-0.14190919697284698,0.168274387717247,0.0451531745493412,0.1408054381608963,-0.021366089582443237,0.08474905788898468,0.14903749525547028,0.11241728067398071,0.17601719498634338,-0.043402817100286484,0.1443968415260315,0.030224807560443878],[-0.17024849355220795,-0.10455061495304108,0.12819090485572815,0.006309958174824715,0.1082688570022583,0.12223060429096222,-0.10346745699644089,-0.04320790246129036,-0.12623713910579681,-0.1723322719335556,0.08654692023992538,-0.11045419424772263,0.025187402963638306,0.07505221664905548,0.08304112404584885,0.08337482064962387,0.08259586244821548,-0.1933455467224121,-0.15801431238651276,-0.06312001496553421,-0.1917187124490738,0.09477648138999939,-0.11716415733098984,-0.1539212465286255,-0.1649375557899475,-0.08469433337450027,-0.019411874935030937,-0.08942048251628876,0.19623969495296478,0.029143866151571274,0.08777975291013718,-0.0806589424610138,-0.1013798788189888,0.08250373601913452,0.09626089036464691,-0.19354280829429626,0.12578840553760529,-0.05725551396608353,0.07935157418251038,-0.10532642900943756,0.1801474690437317,-0.20047703385353088,-0.1144140437245369,0.12914453446865082,-0.14751392602920532,0.03868968412280083,0.06668124347925186,0.19517363607883453,0.16140976548194885,-0.12594486773014069,0.17547403275966644,-0.04819842800498009,0.2703210413455963,0.0013924865052103996,0.2078741043806076,0.05922214686870575,-0.10006781667470932,-0.04634583368897438,0.051791299134492874,-0.1338941901922226,0.08496585488319397,-0.12040472775697708,0.058812301605939865,0.17249758541584015,-0.19159777462482452,0.15666237473487854,0.12874735891819,-0.1519766002893448,-0.08901552110910416,0.10098475217819214,-0.09902150928974152,0.1378357708454132,-0.13172662258148193,0.0435178279876709,-0.12594813108444214,-0.2472795993089676,0.15065282583236694,-0.1545611321926117,0.015757912769913673,0.14283066987991333,0.06984762847423553,-0.10657688230276108,0.13423414528369904,-0.02025643177330494,0.19697147607803345,0.07300291210412979,-0.20581866800785065,0.09696826338768005,-0.47213101387023926,-0.038107942789793015,-0.1350419968366623,0.11724986881017685,0.015938131138682365,0.06687769293785095,0.11728176474571228,-0.029111526906490326,-0.1961759775876999,-0.22700080275535583,-0.20693756639957428,-0.20112937688827515,-0.19479289650917053,-0.45313337445259094,0.10927459597587585,-0.057406965643167496,0.051162950694561005,-0.07018031924962997,-0.21461109817028046,-0.009485680609941483,-0.03808094561100006,0.08874597400426865,0.11434359103441238,-0.16160066425800323,-0.06848453730344772,-0.22267529368400574,-0.19484636187553406,-0.01835986226797104,-0.20491749048233032,0.12199218571186066,0.17055556178092957,-0.061824552714824677,0.2406417727470398,-0.046383678913116455,0.013453573919832706,-0.17605498433113098,-0.178236186504364,-0.19719567894935608,-0.053729619830846786,0.002178746275603771,0.10438308119773865,-0.07504697144031525,0.07052215933799744,0.10494470596313477,0.0013427854282781482,0.2836941182613373,0.11292184889316559,0.09416552633047104,0.04101056978106499,0.37442344427108765,0.31291550397872925,-0.04927755519747734,-0.08895044028759003,0.02196515165269375,-0.15503624081611633,-0.10187707096338272,0.15522001683712006,0.05536486580967903,0.04153139144182205,-0.13201795518398285,-0.09949158132076263,-0.13493147492408752,0.31812867522239685,0.05938594788312912,0.34777089953422546,0.3352636992931366,0.1520078480243683,0.37184664607048035,0.26242589950561523,-0.17160841822624207,0.14349833130836487,0.10535968840122223,0.13052304089069366,-0.07307425886392593,-0.13194239139556885,0.11397434026002884,-0.1275196522474289,-0.1854630708694458,0.05899771302938461,0.07597105950117111,0.3590247333049774,0.3556663691997528,0.10366754978895187,0.212086021900177,0.07967077940702438,0.025879964232444763,0.09568289667367935,-0.048437852412462234,-0.1351708471775055,-0.03965970128774643,-0.043784286826848984,-0.08521213382482529,-0.0006140197510831058,-0.43449199199676514,-0.21319065988063812,-0.04587283357977867,-0.08634324371814728,-0.0239104051142931,-0.08133988082408905,-0.06611941009759903,-0.06541512161493301,-0.04395296424627304,-0.04000402241945267,-0.1896466463804245,-0.21280011534690857,0.06484653055667877,0.02118278294801712,-0.013527143746614456,-0.18574199080467224,0.04942382872104645,-0.25312089920043945,-0.0599001906812191,-0.22117072343826294,0.01629597693681717,0.013681510463356972,-0.07818849384784698,0.09491829574108124,-0.15841391682624817,-0.18814778327941895,0.07951760292053223,-0.032218221575021744,-0.13739047944545746,-0.06707543134689331,-0.02999759092926979,-0.0027104360051453114,-0.22235208749771118,-0.23084786534309387,-0.047852370887994766,-0.10421886295080185,-0.12019816040992737,0.2000514268875122,0.07406258583068848,-0.28837478160858154,-0.17584677040576935,-0.020147530362010002,0.09955143928527832,-0.03177512809634209,-0.11113531142473221,-0.16498136520385742,0.10450828820466995,0.13140805065631866,0.11028038710355759,0.1298888772726059,-0.1141425371170044,0.1001056432723999,-0.026625076308846474,0.2510359287261963,0.18263760209083557,-0.09464897215366364,0.2500631511211395,0.06523940712213516,0.07981978356838226,-0.10574118793010712,0.0713471844792366,-0.0740935429930687,0.029197189956903458,-0.14717622101306915,-0.06251690536737442,0.08297225087881088,0.10167624056339264,-0.020297309383749962,-0.029059231281280518,0.15784645080566406,-0.1181034967303276,0.041202280670404434,0.19903112947940826,0.1763671189546585,-0.0001925259130075574],[-0.13614332675933838,0.051383111625909805,0.13233424723148346,-0.14058616757392883,0.0029509759042412043,0.04117804765701294,0.08809788525104523,-0.010382397100329399,-0.07959463447332382,-0.1889784187078476,-0.17374128103256226,-0.03909886255860329,-0.013041400350630283,0.19200310111045837,0.17061865329742432,-0.05873139947652817,0.034374337643384933,0.1646803915500641,-0.15774253010749817,0.1036723256111145,-0.040901150554418564,-0.1310424953699112,-0.14639918506145477,-0.13856881856918335,-0.3082593083381653,0.04427517205476761,0.03172154724597931,0.08356045186519623,-0.05859701707959175,-0.1566327065229416,0.08256635814905167,0.01778174191713333,-0.09355904906988144,-0.06230570748448372,-0.1578042060136795,-0.19608916342258453,-0.21245458722114563,-0.007844703271985054,-0.20226141810417175,-0.08781679719686508,0.06562882661819458,0.13441507518291473,0.13293997943401337,-0.11451692134141922,0.001454655546694994,0.104917973279953,-0.17436684668064117,0.18017888069152832,-0.056101564317941666,0.07025451213121414,-0.04380566626787186,0.02247636578977108,0.24986708164215088,-0.06490562111139297,0.026011038571596146,0.11927121877670288,-0.27358555793762207,-0.22915509343147278,-0.05033119395375252,0.09783850610256195,-0.07751098275184631,-0.0012046381598338485,-0.15364526212215424,0.09903912246227264,0.13039453327655792,0.08307966589927673,-0.2065911591053009,0.234765887260437,-0.026408866047859192,0.1416126787662506,0.13462409377098083,-0.012064295820891857,-0.29585862159729004,-0.20248955488204956,0.013227522373199463,-0.16261374950408936,-0.07331421971321106,0.15325339138507843,0.08401528000831604,0.16107995808124542,0.014224808663129807,0.014307765290141106,0.027220377698540688,-0.07044336944818497,0.3015507459640503,0.008186201564967632,0.3535397946834564,0.05493096634745598,-0.8624718189239502,-0.32016468048095703,-0.2511795163154602,-0.16208231449127197,-0.08654249459505081,0.050836339592933655,0.11535803973674774,-0.05475896969437599,0.16468632221221924,0.045239925384521484,-0.11795622855424881,-0.3148191571235657,-0.543264627456665,-0.3850913345813751,-0.27751731872558594,-0.5417434573173523,-0.16721922159194946,-0.4210801422595978,-0.3869975507259369,-0.3802071511745453,-0.25958114862442017,-0.08665509521961212,0.16257542371749878,-0.013819171115756035,-0.11815240234136581,-0.34572795033454895,-0.1396518051624298,-0.4972606301307678,-0.4272395372390747,-0.002053436590358615,0.03133247420191765,0.012318320572376251,0.32810792326927185,0.28739747405052185,-0.21930080652236938,-0.286539226770401,-0.39169445633888245,-0.1009523868560791,-0.016194317489862442,-0.06323067843914032,-0.17788338661193848,-0.23154044151306152,-0.3102446496486664,-0.10434728860855103,-0.26094967126846313,-0.14556269347667694,0.5458181500434875,0.42332831025123596,0.4909965395927429,0.6639034152030945,0.24953468143939972,0.029258938506245613,-0.13191252946853638,-0.5563499331474304,-0.12350717931985855,0.04892730340361595,-0.17886856198310852,-0.03961664438247681,-0.07627509534358978,-0.132742241024971,-0.47987645864486694,-0.21111290156841278,0.7338884472846985,0.25614961981773376,0.6069653034210205,0.8570342659950256,-0.028983496129512787,0.2676636278629303,0.19910995662212372,-0.14124351739883423,0.17702309787273407,0.13380154967308044,-0.0713895931839943,-0.2894365191459656,-0.06756216287612915,0.1705770194530487,0.2070455104112625,0.06432898342609406,0.07883336395025253,0.1667550504207611,0.6091634035110474,0.4307701587677002,0.32065054774284363,0.1567944586277008,-0.11172668635845184,0.11682849377393723,0.022111453115940094,-0.302001416683197,-0.07565507292747498,-0.12479128688573837,-0.3825536370277405,0.12168501317501068,-0.124772809445858,0.058908529579639435,-0.11868074536323547,0.08823277056217194,0.2625007927417755,0.4819245934486389,-0.1136423721909523,0.17495498061180115,-0.21476703882217407,0.17779968678951263,-0.20725707709789276,-0.1670394390821457,-0.08972344547510147,-0.037412259727716446,-0.29599419236183167,-0.0816984549164772,0.27512961626052856,-0.09501687437295914,0.24886773526668549,0.05377059802412987,-0.05586232617497444,0.07414395362138748,0.8762925863265991,0.10100428760051727,-0.08830858767032623,-0.12234053015708923,-0.26915836334228516,-0.06347981840372086,0.04860004410147667,-0.19054225087165833,0.036202315241098404,-0.19070687890052795,0.11973121017217636,-0.024809332564473152,-0.011494441889226437,0.2318774312734604,0.04550471156835556,-0.09554539620876312,0.45142868161201477,0.28659024834632874,0.2583649158477783,0.2977547347545624,0.11215904355049133,0.147922083735466,0.19468392431735992,-0.12773312628269196,-0.10633675009012222,-0.11969190090894699,0.07415991276502609,0.1255090981721878,0.16870154440402985,0.07535232603549957,0.22040022909641266,0.3775233328342438,0.3802874684333801,0.33582577109336853,0.17284969985485077,0.1767239272594452,-0.13704897463321686,-0.07311715930700302,0.08551804721355438,0.1375723034143448,0.1684962511062622,0.13458971679210663,0.18084405362606049,-0.18212585151195526,0.041353192180395126,0.06493043154478073,-0.07757683098316193,0.1618211269378662,-0.0825975090265274,0.03773985430598259,-0.06293859332799911,0.1722440868616104,-0.0055913557298481464,0.1725148856639862],[0.0076911491341888905,0.07050298899412155,0.15307706594467163,0.11864139884710312,0.018536074087023735,-0.07475090026855469,-0.013276878744363785,0.16865848004817963,0.12788325548171997,0.09870808571577072,-0.01536683551967144,0.03561541438102722,0.08085085451602936,0.0396810881793499,0.03611410781741142,-0.12761706113815308,-0.05331588163971901,0.09222425520420074,-0.08231045305728912,-0.19760599732398987,-0.18366612493991852,0.1509522944688797,0.10985389351844788,-0.08737547695636749,0.04914156347513199,-0.042215000838041306,-0.19500498473644257,0.16418258845806122,0.025888370350003242,0.13983982801437378,0.08715949207544327,0.11758073419332504,0.15702155232429504,-0.0359431616961956,0.047501567751169205,0.1931179016828537,0.17807503044605255,-0.1989317536354065,-0.1464628428220749,-0.2730845808982849,-0.22970826923847198,-0.013845609501004219,0.18941441178321838,-0.19706103205680847,-0.11761461198329926,-0.16496305167675018,-0.0008321587811224163,0.1536443531513214,-0.1481078565120697,-0.11277250200510025,0.08691652119159698,-0.11074759811162949,-0.34448060393333435,0.18104048073291779,-0.07554172724485397,-0.3817461133003235,0.08129753917455673,0.0007900503696873784,0.30923599004745483,0.04336746037006378,-0.036855775862932205,0.05677144229412079,-0.009035608731210232,-0.1147422343492508,-0.19646389782428741,-0.13966985046863556,0.2258341759443283,-0.12997424602508545,-0.2770248055458069,-0.3217049837112427,-0.18308500945568085,-0.524943470954895,-0.09906809777021408,0.10782428830862045,0.21548053622245789,0.21150223910808563,-0.030511504039168358,0.15512555837631226,0.14372923970222473,-0.18003176152706146,0.13179698586463928,0.12524299323558807,0.3454667031764984,0.12462519854307175,-0.12790045142173767,0.22890114784240723,0.0581478551030159,-0.3450009524822235,0.39933639764785767,0.3581213057041168,0.6101559400558472,0.10668119788169861,0.029509348794817924,0.13918709754943848,0.0583202950656414,0.06118015572428703,0.04276340454816818,0.2976922392845154,0.11553086340427399,0.3492482304573059,-0.009045799262821674,0.4346628487110138,0.2002115100622177,0.3085700571537018,0.25892412662506104,0.38116535544395447,0.19728513062000275,0.4837716817855835,0.009807635098695755,-0.23119626939296722,0.14316128194332123,-0.19538389146327972,0.15049877762794495,0.12714716792106628,0.025694986805319786,0.20095030963420868,0.09579434245824814,0.0979703888297081,0.05013558641076088,-0.24993103742599487,0.2103564590215683,0.168879896402359,0.38766705989837646,0.3807174265384674,0.17258355021476746,-0.04006781429052353,0.01825038157403469,0.107316754758358,0.0174554456025362,0.13662189245224,0.12700259685516357,-0.03115631826221943,-0.18384647369384766,-0.19891273975372314,-0.35705244541168213,-0.05972741171717644,0.043098609894514084,-0.12054120004177094,-0.29558494687080383,0.0003101346956100315,-0.20977193117141724,0.21608301997184753,0.055235303938388824,0.06621566414833069,-0.11034704744815826,0.19943220913410187,0.09034039080142975,0.011207488365471363,0.21383452415466309,0.1312207281589508,-0.2855583131313324,-0.5601601004600525,-0.36339572072029114,-0.2528393268585205,-0.10169294476509094,-0.5089560151100159,-0.18247278034687042,-0.13441811501979828,-0.09345326572656631,0.22845350205898285,-0.08548495173454285,0.015265046618878841,-0.033743876963853836,-0.15769816935062408,0.3147275745868683,0.19499531388282776,-0.25375720858573914,-0.4006772041320801,-0.27234703302383423,-0.7142361402511597,-0.4764586091041565,-0.18513049185276031,-0.23463203012943268,-0.1719970554113388,-0.055045586079359055,-0.0687151849269867,-0.11258138716220856,0.22067789733409882,0.1828446239233017,0.2035820037126541,0.19464224576950073,0.4070928394794464,0.24441270530223846,0.22383534908294678,-0.40038153529167175,-0.4761660695075989,-0.09160546213388443,-0.2626415491104126,-0.15401270985603333,-0.1394827514886856,0.25137531757354736,-0.07058669626712799,-0.12116101384162903,0.28584301471710205,0.4408201277256012,0.09686442464590073,-0.015056470409035683,0.05516238510608673,0.08733128011226654,0.07685132324695587,0.1030760258436203,-0.319411963224411,-0.5161027312278748,0.1726032942533493,0.06593731045722961,0.040159933269023895,0.24536998569965363,-0.02383512258529663,0.12415874004364014,0.08343622833490372,-0.07266034930944443,0.28865137696266174,0.07598374783992767,0.03105797991156578,0.20714245736598969,0.09301432222127914,0.1993967741727829,-0.06997976452112198,-0.2647615969181061,0.3064890503883362,0.3700619041919708,-0.13459716737270355,0.3032076954841614,0.26211458444595337,-0.08397401124238968,-0.08804284036159515,0.12105774879455566,0.28285306692123413,0.08150200545787811,-0.07859200239181519,-0.12419010698795319,-0.040824536234140396,-0.20121528208255768,-0.12428592890501022,0.05236290767788887,-0.07094555348157883,0.08049822598695755,-0.10189896821975708,-0.019877441227436066,0.15060384571552277,0.16371187567710876,-0.17760592699050903,0.14915090799331665,-0.04894038662314415,-0.01014934666454792,-0.16478292644023895,-0.1639924943447113,-0.0734405517578125,0.16798433661460876,0.02704690769314766,-0.11900979280471802,0.05056896060705185,-0.01733599789440632,-0.022437261417508125,0.09826582670211792,0.08167435973882675],[0.1439734399318695,0.11683934181928635,-0.0817822739481926,-0.09619437158107758,0.10887979716062546,-0.15802094340324402,-0.12799978256225586,0.07264140248298645,-0.05669451504945755,-0.1441279947757721,-0.15516570210456848,0.11997594684362411,-0.11183419823646545,-0.18570098280906677,0.07421906292438507,-0.008483989164233208,0.12281651794910431,-0.0011672595283016562,-0.04492388665676117,-0.09259780496358871,0.045137155801057816,-0.17161451280117035,-0.1297827959060669,-0.08913729339838028,0.03055567853152752,0.11975608021020889,-0.0949540063738823,0.144883930683136,-0.13053785264492035,0.10251808911561966,0.1054958924651146,0.12889008224010468,-0.17855820059776306,-0.0247783325612545,-0.16245701909065247,-0.0977787896990776,0.07803286612033844,0.4122360646724701,0.11605753004550934,-0.20102037489414215,-0.2175936996936798,0.16417358815670013,-0.03728313371539116,0.0011765258386731148,-0.10426224023103714,0.05974121764302254,-0.12262174487113953,-0.08883906155824661,-0.005074420943856239,0.07035266607999802,-0.18894091248512268,-0.0895482525229454,0.11609604954719543,0.14124764502048492,0.24750348925590515,-0.5229629278182983,-0.0055776676163077354,-0.20439361035823822,-0.39133819937705994,-0.030916357412934303,-0.03255048766732216,-0.13126766681671143,0.1025124043226242,0.010575409978628159,0.07857837527990341,-0.10031194239854813,0.22612696886062622,0.013186329044401646,0.07781030237674713,0.16785477101802826,-0.04850846529006958,-0.4038732647895813,-0.11546067893505096,0.11232438683509827,-0.14778052270412445,0.16856887936592102,-0.09450928866863251,0.05897638574242592,-0.14181393384933472,0.15810586512088776,0.07332684844732285,-0.10126733034849167,0.1064448356628418,0.3173457086086273,0.11561451852321625,0.22225801646709442,0.04170578345656395,0.3521086573600769,0.4869184195995331,0.4379079341888428,0.256074458360672,0.1679607778787613,0.3492550253868103,-0.07041912525892258,-0.06809263676404953,-0.1123010516166687,-0.06981662660837173,0.31256964802742004,0.14938664436340332,0.1240362823009491,-0.12322422862052917,0.32259848713874817,0.07226666808128357,-0.12204757332801819,-0.12591813504695892,0.6287962198257446,0.29564136266708374,0.6695300936698914,0.2912980020046234,0.32498279213905334,-0.0354699082672596,-0.08573976159095764,0.25092604756355286,0.08584180474281311,0.18352246284484863,0.03674891218543053,0.015273816883563995,-0.16468146443367004,-0.2973088026046753,-0.5706613659858704,-0.6104758977890015,-0.06194060668349266,0.8785567283630371,0.7032248973846436,0.29242703318595886,0.35070914030075073,0.09382220357656479,0.05589456111192703,0.15390896797180176,0.053069330751895905,-0.030245143920183182,0.0014825687976554036,0.1716105043888092,0.40316927433013916,-0.45713260769844055,-0.784365177154541,-0.47941920161247253,-0.46432188153266907,-0.04486861079931259,0.4420464336872101,0.312077134847641,0.7651543021202087,0.2342936247587204,0.009521178901195526,0.05311375856399536,0.201410710811615,-0.04136915132403374,0.15392537415027618,0.09541677683591843,0.3510756492614746,-0.6179297566413879,-0.6408613920211792,-0.7913312911987305,-0.8244737982749939,0.07961906492710114,0.2682124376296997,0.010440793819725513,0.41940173506736755,0.2416943907737732,-0.08765440434217453,-0.12862299382686615,0.136698916554451,0.19096511602401733,0.13165387511253357,0.2996023893356323,0.2989157736301422,0.2301744520664215,-0.20872320234775543,-0.6877214312553406,-0.7963752150535583,-0.04682577773928642,-0.06126295030117035,0.16705143451690674,0.4048885405063629,0.013158803805708885,0.17649097740650177,-0.025531360879540443,0.05055283010005951,0.12040609866380692,0.0043822466395795345,0.09723229706287384,0.10476203262805939,0.12216734141111374,-0.2398044466972351,-0.3582364320755005,-0.4034096598625183,0.02725333347916603,-0.09926383942365646,0.06362669169902802,-0.14250792562961578,0.41567718982696533,0.01910323090851307,0.011929062195122242,0.07704474031925201,-0.25259530544281006,-0.28294873237609863,-0.06758338958024979,-0.14937345683574677,-0.11558909714221954,-0.2127019613981247,-0.15649183094501495,-0.07666361331939697,-1.0247089862823486,-0.2532845139503479,-0.14379897713661194,0.01216394267976284,-0.1277112066745758,0.11447851359844208,-0.005521558225154877,-0.05235063284635544,-0.17065005004405975,-0.30795997381210327,-0.24925316870212555,-0.1683187484741211,-0.15617750585079193,0.20587629079818726,0.11839662492275238,0.18335382640361786,-0.8118097186088562,-0.24929983913898468,-0.12270768731832504,-0.12289703637361526,0.05860595032572746,0.1572912633419037,0.10668976604938507,0.1673765480518341,0.07945987582206726,0.0721495971083641,-0.17814257740974426,0.0357888787984848,-0.25659531354904175,-0.02766953408718109,-0.30503398180007935,-0.45450395345687866,-0.30500859022140503,-0.31038063764572144,-0.2678660452365875,0.041036635637283325,-0.04811486974358559,0.03474250063300133,-0.16660775244235992,0.1552439033985138,0.06473399698734283,0.14020608365535736,-0.0925719141960144,-0.06815347075462341,0.06034686416387558,0.16908398270606995,0.03207186609506607,0.053826555609703064,0.00028617685893550515,-0.22950278222560883,0.09048142284154892,-0.17773191630840302,0.028856046497821808,0.009217457845807076],[-0.198760986328125,0.18953445553779602,-0.09440719336271286,-0.015512284822762012,-0.13168539106845856,0.09995441138744354,0.06526742875576019,-0.1860988587141037,0.12352807074785233,0.027131574228405952,-0.007340424228459597,0.18920139968395233,0.04449811577796936,-0.14191874861717224,-0.08828344196081161,-0.16992071270942688,0.1338680535554886,0.02642952650785446,0.08119788020849228,-0.17718809843063354,-0.06850676983594894,0.1613624393939972,-0.06355901062488556,-0.1480005532503128,-0.040096014738082886,-0.11115001142024994,-0.05591663718223572,-0.15946686267852783,0.14426229894161224,0.13764400780200958,0.07905138283967972,0.18788473308086395,0.06668595969676971,0.012145701795816422,0.16090887784957886,-0.15970928966999054,0.09388067573308945,0.21165437996387482,0.34015509486198425,0.4757618308067322,0.017037684097886086,0.1346995085477829,-0.05867372080683708,0.15456435084342957,-0.042394787073135376,-0.1080235093832016,-0.012330620549619198,-0.002165592508390546,0.11037278920412064,0.150785893201828,-0.1978064924478531,0.16743284463882446,0.03396313637495041,-0.24399544298648834,0.05217108875513077,-0.02651209942996502,-0.11631454527378082,-0.24454496800899506,-0.009787129238247871,-0.1607201099395752,-0.04995785281062126,0.1963718831539154,0.09548432379961014,0.1541544795036316,-0.07020706683397293,0.0366462767124176,-0.08519278466701508,0.11269408464431763,0.05402375012636185,-0.17982228100299835,-0.014390286058187485,0.009340371936559677,0.6456339955329895,-0.20792661607265472,0.2662830948829651,-0.012228394858539104,0.21540914475917816,-0.03611498326063156,0.15305601060390472,0.18163058161735535,0.035863567143678665,0.07398240268230438,-0.05024150758981705,-0.5507500171661377,-0.3177104592323303,-0.40352264046669006,-0.3125579357147217,0.05984635651111603,0.06457621604204178,0.10149464756250381,-0.14205129444599152,-0.04085702449083328,0.3816972076892853,0.026272891089320183,0.19862350821495056,-0.05584849417209625,-0.1382928192615509,-0.08933854848146439,-0.036539867520332336,-0.19835937023162842,-0.40112969279289246,-0.7065284252166748,-0.2056836187839508,-0.09808124601840973,0.30180275440216064,-0.05719170346856117,0.047761183232069016,-0.04512161388993263,0.3805708587169647,0.1316271722316742,-0.07623397558927536,-0.03302935138344765,0.09881860762834549,0.0023655996192246675,-0.1675208956003189,-0.1583832949399948,-0.5097627639770508,-0.4575885236263275,0.04443913325667381,0.20594432950019836,0.17277339100837708,-0.10747205466032028,-0.09042259305715561,-0.164714977145195,0.32306650280952454,-0.014107477851212025,0.15973204374313354,-0.00873575173318386,-0.005263632629066706,-0.01375157106667757,-0.08544635772705078,-0.339324951171875,-0.1578008383512497,-0.24037669599056244,0.1394825428724289,0.21675404906272888,0.3067423105239868,0.07593117654323578,-0.16467659175395966,-0.34522247314453125,-0.11713513731956482,-0.049383971840143204,0.06940814852714539,-0.0653863251209259,0.020897282287478447,-0.015895280987024307,0.1733422577381134,-0.23739656805992126,0.29505178332328796,0.24630135297775269,0.1275867223739624,0.02373570390045643,0.014269811101257801,-0.13947977125644684,0.09767289459705353,-0.07063904404640198,-0.187071293592453,0.11620700359344482,0.08594059944152832,-0.1950182020664215,0.03583652526140213,-0.015863077715039253,0.11468718945980072,-0.2970758378505707,-0.6960775256156921,-0.36057552695274353,-0.47173455357551575,-0.07592686265707016,0.1739082634449005,0.049840182065963745,0.16001680493354797,-0.4422141909599304,0.03888647258281708,-0.04217217117547989,0.029607145115733147,-0.02294011600315571,0.14555589854717255,-0.025002045556902885,-0.24352723360061646,-0.5727637410163879,-0.6888341903686523,-0.6504164934158325,-0.7765937447547913,-0.3026941418647766,0.20845377445220947,0.05651360750198364,-0.015162583440542221,0.0052660382352769375,-0.11470693349838257,0.10067702829837799,0.18716394901275635,-0.14432702958583832,-0.004027103539556265,-0.16256645321846008,-0.04094058647751808,0.13373644649982452,0.12048911303281784,0.2723977267742157,-0.15411309897899628,0.16744111478328705,0.15334659814834595,0.19579334557056427,0.08576374500989914,-0.4261285066604614,0.07320142537355423,-0.29895591735839844,-0.1873951256275177,0.10204530507326126,-0.10377942025661469,-0.05529474839568138,0.18925748765468597,0.3959236145019531,0.464592307806015,0.4954909086227417,0.5799537301063538,0.4233376383781433,0.20098310708999634,0.07240764051675797,-0.007411540485918522,-0.14475128054618835,0.17819762229919434,-0.13214188814163208,-0.1724574863910675,-0.15630558133125305,0.17225900292396545,-0.051379065960645676,-0.06326401978731155,-0.022019436582922935,0.12265201658010483,0.16555079817771912,0.24720284342765808,0.6959287524223328,0.4096826910972595,0.11797968298196793,-0.250973641872406,0.030747976154088974,-0.3402853012084961,-0.06316541880369186,-0.14791563153266907,-0.02086700312793255,0.19590821862220764,0.05125777795910835,-0.09897775202989578,-0.007500094827264547,-0.0847124382853508,0.18929706513881683,-0.08917351067066193,-0.03949059173464775,0.019162524491548538,-0.1038610190153122,-0.20687778294086456,0.06750859320163727,-0.013478714972734451,0.18988409638404846,0.03334255889058113,0.13172759115695953],[-0.0760798454284668,-0.1293005645275116,-0.05881699547171593,-0.13714373111724854,0.18358299136161804,-0.15138636529445648,-0.14282971620559692,-0.09667551517486572,0.0936950147151947,-0.10085231065750122,0.1543205976486206,-0.13475528359413147,-0.1539212316274643,0.024237381294369698,-0.021569067612290382,0.1338885873556137,0.19454118609428406,-0.0974373146891594,0.11549312621355057,-0.06175475940108299,0.19804956018924713,-0.0817546397447586,-0.14343664050102234,0.17537887394428253,-0.005668150261044502,0.15784160792827606,-0.11954395473003387,0.06615082919597626,-0.17201893031597137,-0.0906747356057167,-0.19127510488033295,-0.18915337324142456,-0.031664445996284485,0.1427011787891388,-0.06629367172718048,0.08000427484512329,0.1044093519449234,0.12476412951946259,0.12174945324659348,0.11120232939720154,0.056208230555057526,-0.13658888638019562,0.12766578793525696,-0.007394414395093918,-0.029147565364837646,0.05442439392209053,0.1024986281991005,0.1437930017709732,0.08319120109081268,-0.016954051330685616,0.05871502682566643,0.1392822116613388,-0.16797731816768646,-0.1514115333557129,0.14649328589439392,-0.2383321076631546,0.050251420587301254,0.07087570428848267,0.36187660694122314,0.03969210013747215,-0.13120990991592407,-0.0669490396976471,0.02942766062915325,-0.1919938176870346,-0.15237963199615479,-0.08936756104230881,-0.061047859489917755,-0.07554605603218079,-0.19306306540966034,-0.2515925467014313,-0.4077472984790802,0.11594897508621216,0.5005010962486267,0.03741325065493584,0.08431150764226913,-0.3963378965854645,0.1738303303718567,-0.1667720079421997,-0.026438342407345772,0.11477845907211304,-0.05093121528625488,0.060523055493831635,0.20087052881717682,-0.05888417735695839,-0.4581604301929474,-0.43358874320983887,-0.5200091004371643,0.33341342210769653,0.06433045864105225,0.23358215391635895,0.009633363224565983,-0.05135628953576088,0.14363189041614532,-0.020482879132032394,-0.09221457690000534,-0.02331613190472126,-0.023501716554164886,0.22964005172252655,0.14913293719291687,0.18060365319252014,0.4787834584712982,-0.010395566932857037,0.39711764454841614,0.4141138195991516,-0.004243094939738512,0.5628264546394348,0.06522659957408905,0.17515061795711517,0.2746165990829468,0.19468791782855988,-0.10872584581375122,0.13308168947696686,-0.06857568025588989,0.11136401444673538,0.3838684856891632,0.8872578144073486,0.5833792686462402,-0.08109529316425323,0.4174133837223053,0.27995163202285767,-0.0847383588552475,-0.4033671021461487,-0.060231003910303116,0.2912634015083313,0.3238883912563324,0.21635785698890686,0.18786829710006714,0.19356396794319153,0.12665362656116486,0.13979478180408478,0.12425920367240906,0.4622802138328552,0.35942983627319336,0.5316522121429443,-0.030543016269803047,0.21341703832149506,0.027403276413679123,-0.13566426932811737,-0.1342068463563919,-0.21827122569084167,0.3202512562274933,0.4858510494232178,0.1486634761095047,-0.15475018322467804,-0.039101872593164444,0.07640746235847473,0.2149837762117386,0.3314753472805023,0.8614732027053833,0.35621190071105957,-0.7053830027580261,0.30828857421875,-0.04940761625766754,-0.3995639383792877,0.22239366173744202,-0.05422938987612724,0.31533506512641907,0.36685606837272644,0.1013786643743515,0.16091026365756989,-0.047811783850193024,0.28181666135787964,-0.06162550672888756,-0.13267935812473297,-0.5091524124145508,-0.6064249873161316,-0.47375166416168213,-0.3935062885284424,-0.40854427218437195,0.0034008806105703115,0.1040085181593895,-0.09170936048030853,0.1760317087173462,0.08118955790996552,0.05396204814314842,-0.10994666069746017,-0.009398533962666988,-0.10657712072134018,0.25349241495132446,-0.25510311126708984,-0.43340447545051575,-0.6358594298362732,-0.13321420550346375,-0.26059144735336304,0.06676512211561203,0.18040409684181213,0.19676287472248077,0.1230022981762886,0.09593454003334045,0.09809321910142899,0.14213986694812775,0.24713268876075745,-0.04124189913272858,0.012222726829349995,0.14826038479804993,-0.01265612430870533,-0.2813683748245239,-0.08294516801834106,-0.03221927210688591,0.10062960535287857,0.15022580325603485,-0.14425843954086304,-0.6848936676979065,-0.1363505870103836,0.2710588574409485,-0.2775285243988037,-0.09116743505001068,-0.15988457202911377,-0.13249020278453827,-0.010089944116771221,-0.23006081581115723,0.004046301823109388,0.11990723013877869,-0.28169625997543335,0.1400981843471527,-0.05644698813557625,0.1172172948718071,0.10103944689035416,-0.23012731969356537,-0.24834804236888885,-0.1044279932975769,-0.32434865832328796,0.10639362782239914,0.0026407975237816572,-0.18351848423480988,-0.11186658591032028,-0.26779189705848694,-0.2593490779399872,0.03390819951891899,-0.06622394174337387,0.2574976682662964,0.27222293615341187,0.23839439451694489,-0.3592226803302765,-0.27782487869262695,-0.39874812960624695,-0.12425022572278976,-0.21804089844226837,-0.15936754643917084,-0.05773461237549782,-0.09690165519714355,-0.10623029619455338,-0.16487978398799896,0.03702415153384209,-0.07479220628738403,0.03457183018326759,-0.0320575051009655,0.2674022614955902,0.07864034920930862,-0.01903006248176098,-0.04931473731994629,0.27066540718078613,-0.17120853066444397,0.017017051577568054,0.147585928440094,0.031265389174222946],[-0.06337212771177292,-0.1347663849592209,-0.03898300603032112,-0.16967976093292236,0.15463188290596008,-0.04653880372643471,-0.09168945252895355,-0.13370884954929352,0.16242969036102295,-0.05145866423845291,-0.0009286032291129231,0.01293538324534893,0.08296142518520355,-0.1031770259141922,0.08662138879299164,-0.1332094818353653,-0.15165826678276062,-0.035366471856832504,0.0973251685500145,0.04083811119198799,0.06906487792730331,-0.12223897129297256,0.11565477401018143,0.17058324813842773,0.1383173018693924,-0.14575208723545074,0.16071926057338715,0.06652762740850449,-0.14342902600765228,0.10988380014896393,-0.1557478904724121,-0.134944349527359,0.0004150252207182348,0.15230485796928406,0.011769910342991352,0.19788239896297455,0.010014696978032589,-0.3680047392845154,-0.19399124383926392,-0.3482494652271271,-0.1525774598121643,-0.17247623205184937,-0.13385704159736633,0.1553918719291687,0.0409366749227047,0.1892400085926056,-0.171127587556839,0.09610725939273834,0.15067285299301147,-0.03474213182926178,0.059374865144491196,-0.23328420519828796,-0.07878553122282028,0.07559143751859665,-0.019800258800387383,0.3307138681411743,0.07254399359226227,0.31471961736679077,0.20811420679092407,-0.09273727983236313,-0.08980903029441833,0.19370272755622864,0.1154618039727211,0.11528057605028152,-0.10401543229818344,-0.1857023686170578,0.2785263657569885,-0.1967943161725998,-0.10985859483480453,0.05607394501566887,0.06147132068872452,-0.33384889364242554,-1.0636494159698486,0.24564559757709503,0.049171674996614456,-0.16681654751300812,0.07431798428297043,-0.17270338535308838,0.0698397159576416,-0.05470338463783264,-0.046980686485767365,0.10398350656032562,0.25152668356895447,0.19646058976650238,0.44073134660720825,0.5003942847251892,0.14164087176322937,-0.5262728929519653,-0.19784191250801086,0.06776776164770126,0.33270829916000366,-0.08611533790826797,-0.199473574757576,0.10395145416259766,-0.07983502745628357,0.08268237859010696,0.004060625098645687,0.11725933849811554,0.009800426661968231,0.31056931614875793,0.3108469545841217,0.6124290823936462,0.3408794701099396,-0.2038988620042801,-0.13822469115257263,0.4409629702568054,0.011740267276763916,-0.10395807772874832,-0.2835003733634949,-0.2678191065788269,-0.17811048030853271,-0.07964023947715759,-0.00603353139013052,0.04149864614009857,0.19417646527290344,0.18579696118831635,0.13666842877864838,0.4021940231323242,-0.041349515318870544,-0.3280658721923828,0.12916642427444458,0.05627692863345146,0.012229474261403084,-0.04116550460457802,-0.19648170471191406,-0.32507193088531494,-0.09359166771173477,-0.17074167728424072,0.23229585587978363,-0.07405861467123032,0.23683586716651917,0.42381569743156433,0.3955738842487335,0.2589360475540161,-0.10920283198356628,-0.4773486852645874,-0.08336519449949265,0.29280513525009155,0.2539873719215393,0.3122502863407135,0.3412185311317444,0.16774936020374298,-0.29419320821762085,0.023823408409953117,-0.03026265650987625,0.09296204894781113,0.14425678551197052,0.44695356488227844,-0.10422076284885406,-0.2863221764564514,-0.0032107101287692785,-0.1825551688671112,-0.07472467422485352,0.18818330764770508,-0.27663084864616394,0.47956401109695435,0.07847080379724503,0.04841092601418495,-0.008449096232652664,0.30758732557296753,0.06444944441318512,0.07238877564668655,0.11921362578868866,0.3358383774757385,0.577314555644989,0.27850961685180664,0.5159668326377869,-0.25881457328796387,0.05058707296848297,-0.40442684292793274,0.0423712283372879,0.501105546951294,0.1427403688430786,0.23824287950992584,-0.04589427635073662,-0.1152254119515419,0.007871589623391628,0.23470360040664673,-0.07592373341321945,0.3304252028465271,0.1652909219264984,0.2553407847881317,0.5259999632835388,0.19995643198490143,-0.4140514135360718,0.12398096919059753,-0.08444154262542725,-0.24442079663276672,-0.028840089216828346,0.1573915183544159,-0.04245962202548981,-0.1616894155740738,0.053671013563871384,0.22448018193244934,0.30035343766212463,-0.04688397794961929,-0.23121705651283264,-0.30143532156944275,0.19917796552181244,-0.04637470468878746,-0.1417607218027115,-0.3993126451969147,-0.27073410153388977,0.43197086453437805,-0.2686343491077423,0.1691482812166214,0.0629100650548935,-0.11987567692995071,-0.11478153616189957,0.0855717733502388,-0.038670506328344345,-0.5489570498466492,-0.17495197057724,-0.436311274766922,-0.3300479054450989,-0.3104962110519409,-0.15988637506961823,-0.023624418303370476,0.0006462268647737801,0.37039920687675476,-0.0498884841799736,0.43123936653137207,-0.012314789928495884,0.29041266441345215,0.12561041116714478,0.03009989857673645,-0.08332391828298569,-0.045605506747961044,0.02786925621330738,-0.22298891842365265,-0.27882763743400574,-0.6800716519355774,-0.3492822051048279,0.053566284477710724,0.3522702157497406,0.1716931015253067,0.3492511808872223,0.026492007076740265,0.03472132608294487,0.06590332835912704,0.17249469459056854,0.07308870553970337,0.08109883964061737,0.15990567207336426,-0.04819730669260025,-0.118132084608078,-0.17295338213443756,-0.27678149938583374,-0.19669677317142487,0.1078537255525589,-0.07485699653625488,0.13470466434955597,-0.14842697978019714,0.16028505563735962,-0.19063231348991394,0.06645532697439194],[-0.04400135204195976,-0.16349393129348755,-0.15566156804561615,-0.1321287602186203,0.07429412007331848,-0.08894654363393784,-0.12921616435050964,0.044789694249629974,-0.1585487574338913,-0.06929608434438705,0.10845239460468292,-0.1510109156370163,0.11486368626356125,-0.17226162552833557,0.027135051786899567,-0.01488275732845068,0.16907258331775665,0.0918678343296051,-0.11294887959957123,-0.0005944753065705299,0.12830960750579834,-0.19998008012771606,0.13782119750976562,-0.10293564945459366,0.013863681815564632,-0.040620557963848114,0.1357375979423523,0.1474841833114624,0.003160979365929961,-0.14843261241912842,-0.004224354401230812,-0.16570623219013214,-0.19140003621578217,-0.019715433940291405,-0.02460164949297905,0.154622882604599,-0.16060508787631989,0.17981426417827606,0.04315004125237465,0.0763547420501709,-0.08079322427511215,0.12241268903017044,0.037563253194093704,0.016257477924227715,0.07592685520648956,-0.08955128490924835,-0.04455368220806122,0.09821517765522003,0.1685320883989334,0.07237637788057327,-0.11106894165277481,-0.11842650920152664,0.0999850183725357,-0.012768158689141273,0.24504883587360382,-0.11495475471019745,0.20605552196502686,-0.06936173886060715,-0.10703103989362717,0.12347336858510971,-0.12950892746448517,0.07512117922306061,-0.12056843191385269,-0.18177425861358643,-0.1561102271080017,0.049778249114751816,0.05870095267891884,-0.037027981132268906,0.10119426250457764,-0.08099552989006042,-0.14234179258346558,-0.07679165154695511,0.05317765474319458,0.23780198395252228,0.22007669508457184,-0.035512376576662064,0.03702213615179062,-0.12731897830963135,-0.17911526560783386,-0.03191608190536499,0.19008062779903412,-0.1448153555393219,-0.08738415688276291,0.041834756731987,0.024985944852232933,0.25396376848220825,-0.014306440018117428,0.103924460709095,0.19053848087787628,-0.13077329099178314,-0.05598551034927368,0.00987973902374506,-0.018311992287635803,0.19200356304645538,0.12233826518058777,-0.1294959932565689,0.11728344857692719,0.07583256810903549,-0.18068526685237885,0.08459973335266113,-0.2769562900066376,-0.0982726514339447,-0.32122018933296204,0.10509645193815231,-0.045083560049533844,0.2156585156917572,-0.02578008361160755,-0.028516540303826332,-0.060574278235435486,0.016917232424020767,-0.18056043982505798,-0.18521949648857117,-0.16669964790344238,-0.00887550413608551,-0.16323980689048767,-0.23999647796154022,-0.14193938672542572,-0.18001925945281982,-0.12472862750291824,0.08030123263597488,0.17150308191776276,-0.05722003057599068,0.283822238445282,0.15616117417812347,-0.13483065366744995,0.128032386302948,0.14213773608207703,-0.0378626249730587,-0.1003471240401268,-0.14408668875694275,0.0732324942946434,-0.27351248264312744,0.031806398183107376,-0.14843632280826569,0.2503259778022766,0.0874854028224945,0.24203425645828247,0.14864076673984528,0.13425785303115845,0.0351753905415535,-0.1913580298423767,0.17303366959095,0.004135963041335344,-0.19910433888435364,0.10784415155649185,0.006751322187483311,0.1874881386756897,-0.2306915521621704,-0.1338435411453247,-0.07306667417287827,-0.05703704431653023,-0.17038746178150177,-0.2191314846277237,0.0858745127916336,-0.30138280987739563,-0.09156253188848495,-0.12329436838626862,0.21531899273395538,0.11388247460126877,0.20536775887012482,-0.14169923961162567,0.07364051789045334,0.012378943152725697,0.14607670903205872,0.1383817493915558,0.12608152627944946,0.20255959033966064,-0.01038849912583828,0.09709597378969193,-0.19555822014808655,-0.21592554450035095,0.07639570534229279,-0.036154575645923615,0.16535547375679016,-0.11571533977985382,0.136917382478714,0.1431199461221695,-0.02982138842344284,0.1952119618654251,0.28161144256591797,0.3215578496456146,0.021036695688962936,0.24682635068893433,0.11866771429777145,-0.06623933464288712,-0.15872234106063843,-0.19401034712791443,-0.11550705879926682,0.011922135017812252,0.08374761790037155,-0.04353402182459831,0.09582395851612091,-0.033640068024396896,-0.1545735001564026,-0.14255546033382416,0.057426709681749344,-0.09293537586927414,-0.09451156109571457,0.18565461039543152,-0.07317609339952469,-0.21166695654392242,-0.07908941805362701,0.09361935406923294,0.08859758079051971,0.14162887632846832,0.002134334295988083,0.16605621576309204,0.14135435223579407,0.0817350223660469,-0.07389937341213226,0.18357664346694946,0.008442075923085213,0.24884875118732452,0.02934999018907547,0.12438938766717911,0.29936957359313965,-0.04589201509952545,-0.032596293836832047,-0.05021180957555771,0.16876903176307678,0.2864789664745331,-0.11119578033685684,0.14669518172740936,0.19743715226650238,0.07006113976240158,0.1719990074634552,0.0985269546508789,0.19812673330307007,0.18295250833034515,0.21309718489646912,0.20418092608451843,0.12159265577793121,-0.09785213321447372,0.30057260394096375,0.13141803443431854,-0.002265341579914093,0.18795756995677948,-0.07249510288238525,0.034121207892894745,-0.12203349173069,0.11820847541093826,0.09153366088867188,0.08425668627023697,0.15774936974048615,-0.14223778247833252,0.18963073194026947,-0.07986724376678467,0.21097548305988312,-0.16802626848220825,-0.11705832183361053,0.18915535509586334,-0.079889215528965,0.04344678670167923,0.0000016844588799358462,-0.057080306112766266,0.15911465883255005],[-0.06762643158435822,0.16264164447784424,0.15206830203533173,0.14201396703720093,-0.07752221077680588,-0.05502830445766449,0.17951835691928864,-0.04763499274849892,0.1457797735929489,-0.08135318756103516,-0.10849634557962418,0.12537987530231476,-0.07101041078567505,-0.1546444594860077,0.14289405941963196,-0.08470585197210312,0.18157078325748444,-0.10318358242511749,0.04500262066721916,-0.062293101102113724,0.09634897857904434,0.1839188188314438,-0.1459270715713501,-0.1300801783800125,0.04950229451060295,-0.035462334752082825,0.01588107831776142,0.09922434389591217,-0.16773085296154022,-0.041615065187215805,-0.15023158490657806,0.014695451594889164,-0.028368426486849785,0.015998288989067078,0.18630070984363556,-0.17351368069648743,-0.23042550683021545,-0.31143781542778015,-0.0403284952044487,-0.25842973589897156,-0.05307615548372269,0.0031861711759120226,0.05362263321876526,-0.1218031570315361,-0.03397650644183159,0.04137100651860237,0.1327199935913086,-0.0126198660582304,-0.02462209016084671,0.19006069004535675,-0.1848502904176712,-0.1603766530752182,-0.13240861892700195,-0.013598646968603134,-0.1901315599679947,0.25750285387039185,0.01818162389099598,0.15692441165447235,0.18563538789749146,0.10927522927522659,0.1525372564792633,0.0405333936214447,0.1039288267493248,0.1936587691307068,0.06014159321784973,-0.06121692433953285,-0.10437086224555969,-0.04898935183882713,-0.19756200909614563,-0.12602464854717255,0.03929378092288971,-0.32581740617752075,-0.45771607756614685,0.02194349281489849,0.14923566579818726,0.013255310244858265,0.07862283289432526,0.13887310028076172,0.004212230909615755,-0.14542201161384583,0.10613428801298141,0.11905314773321152,0.04501667991280556,0.04353102669119835,0.008077709935605526,0.18850243091583252,-0.03238651528954506,-0.36749669909477234,-0.17197827994823456,-0.4015669822692871,-0.1605234593153,-0.2996397018432617,-0.3313911557197571,-0.039716292172670364,0.01852123998105526,-0.14992786943912506,-0.010181721299886703,-0.006827140226960182,0.14008618891239166,0.22871600091457367,-0.24175140261650085,0.030395152047276497,0.1557815968990326,0.05498513579368591,-0.16809290647506714,-0.36785945296287537,-0.21046647429466248,-0.2325558215379715,-0.21119318902492523,-0.2553231418132782,-0.1417255997657776,0.014580152928829193,0.18324914574623108,-0.20811039209365845,-0.08065704256296158,0.034246742725372314,-0.06991306692361832,0.372514009475708,-0.026265261694788933,0.07522805035114288,0.283370703458786,0.03707389533519745,-0.2754918932914734,-0.1471617966890335,-0.2891947627067566,-0.41440320014953613,-0.21562562882900238,-0.014700822532176971,-0.14410212635993958,-0.10676261782646179,0.04212483763694763,0.06825491040945053,0.0228324756026268,-0.08614494651556015,0.0089615723118186,-0.15298473834991455,0.10254611074924469,0.3494058847427368,0.11722449213266373,-0.10475744307041168,0.17787255346775055,-0.17716583609580994,-0.17600688338279724,0.033197611570358276,0.01617809571325779,-0.016423732042312622,-0.02037515677511692,-0.11244069784879684,-0.038240786641836166,-0.04050002619624138,0.08368998020887375,0.03539354354143143,0.22217150032520294,0.6076741218566895,0.03332183510065079,0.0016987888375297189,0.1303059309720993,-0.1707233190536499,0.1301020085811615,-0.005339694209396839,-0.07954016327857971,-0.2043810784816742,0.1467493325471878,0.19424952566623688,0.2509688436985016,0.25663959980010986,0.06514212489128113,-0.027545791119337082,0.20291708409786224,0.1816217601299286,-0.2102334350347519,0.4141865074634552,-0.14945176243782043,-0.022119635716080666,-0.1476520597934723,-0.2260231077671051,-0.023950614035129547,-0.15727217495441437,-0.26973235607147217,0.0549900084733963,0.17612187564373016,-0.02622523531317711,0.25417688488960266,0.10953906923532486,0.11831570416688919,-0.005157424136996269,-0.1934012770652771,-0.19346988201141357,-0.03213606774806976,0.16608257591724396,-0.2781210243701935,-0.22498014569282532,-0.08832389116287231,0.053175706416368484,0.0912938266992569,-0.0226628165692091,-0.02638278715312481,-0.22774603962898254,0.09751351922750473,0.28093379735946655,0.10825952142477036,-0.26754456758499146,0.30369532108306885,0.16019238531589508,-0.22522525489330292,0.05642712116241455,0.22403427958488464,0.03212601691484451,0.1318473517894745,-0.11376754194498062,0.14697931706905365,-0.09182590246200562,-0.29021981358528137,-0.3767884373664856,-0.11589780449867249,-0.15966948866844177,-0.2911929786205292,-0.21242696046829224,0.17612650990486145,0.22612781822681427,0.13379544019699097,0.18985627591609955,-0.1023852750658989,0.2131214290857315,0.16530776023864746,-0.07432149350643158,-0.06365189701318741,0.06833993643522263,0.05252203345298767,-0.270351767539978,-0.14490263164043427,-0.21794912219047546,-0.06565355509519577,0.04920903965830803,0.27628040313720703,0.10391875356435776,0.15513868629932404,0.334367573261261,-0.10513310879468918,0.1776629090309143,-0.048358287662267685,-0.03238533064723015,-0.048542194068431854,-0.17561474442481995,0.03857359662652016,-0.2783069908618927,-0.018295595422387123,-0.15680190920829773,-0.0289238840341568,0.10886724293231964,-0.00013632283662445843,0.18105226755142212,0.10516577959060669,-0.12009510397911072,-0.11456223577260971,0.19852976500988007],[-0.04238368570804596,0.11748820543289185,-0.12295004725456238,0.18158526718616486,-0.1467576026916504,-0.04392215237021446,0.01587923988699913,0.10405197739601135,0.03516682982444763,0.08998317271471024,0.15311698615550995,0.18134692311286926,0.07672636955976486,-0.05386342480778694,0.17505036294460297,-0.03748732805252075,0.15242378413677216,-0.030750757083296776,0.155159592628479,0.18827129900455475,-0.15089631080627441,0.14753614366054535,-0.03442017361521721,-0.0010472401045262814,-0.24504710733890533,0.09138936549425125,0.010557464323937893,-0.14693622291088104,-0.09389782696962357,0.11658166348934174,-0.060621269047260284,0.19428588449954987,0.18483015894889832,0.016469931229948997,-0.08786467462778091,0.18831802904605865,-0.04068803787231445,0.25799286365509033,0.1546252816915512,-0.23020689189434052,-0.11496100574731827,-0.01578567549586296,0.1087653860449791,0.1520189791917801,-0.11729878932237625,-0.11443544179201126,0.08020447194576263,0.13245202600955963,-0.060193125158548355,0.030415305867791176,0.07426564395427704,0.24390116333961487,0.19819943606853485,0.27121248841285706,0.0363846980035305,0.2994438409805298,-0.14698901772499084,0.014518129639327526,-0.18624043464660645,0.06237737089395523,0.025175966322422028,0.0773133635520935,-0.059456389397382736,-0.0653972253203392,-0.09547718614339828,-0.10508021712303162,0.15780925750732422,0.07315331697463989,0.15111732482910156,0.46860021352767944,0.15366727113723755,0.1459628790616989,-0.1708591878414154,-0.05179408937692642,-0.35658907890319824,-0.26809990406036377,-0.22516144812107086,0.19971594214439392,-0.18118654191493988,-0.145093634724617,0.1913652867078781,-0.11088134348392487,0.17880402505397797,0.09309807419776917,0.5333890318870544,0.13807980716228485,0.13557133078575134,0.16332095861434937,-0.41804778575897217,-0.062458790838718414,-0.20738467574119568,0.2716746926307678,-0.003600813914090395,-0.08683604747056961,0.07973849028348923,0.18935799598693848,0.03097008913755417,0.19147321581840515,0.07607243210077286,0.03518242761492729,-0.3306334912776947,-0.12350533902645111,-0.1667841523885727,-0.5067062973976135,-0.07644255459308624,-0.24015913903713226,-0.15691247582435608,0.11009083688259125,-0.004579093772917986,-0.07577522844076157,-0.18296463787555695,-0.07466056942939758,0.17943374812602997,0.02568932995200157,0.0224362313747406,-0.12483172863721848,-0.1751195192337036,0.21886874735355377,-0.09519000351428986,-0.17841298878192902,-0.0664624497294426,-0.28394442796707153,-0.04629700258374214,0.16835302114486694,-0.05292145535349846,0.09513391554355621,0.07302381843328476,-0.002187183126807213,0.0294459518045187,0.003371202852576971,-0.056633926928043365,0.23103365302085876,0.4570533037185669,0.5485439896583557,0.3831225335597992,-0.057099830359220505,-0.014287360943853855,0.15110746026039124,0.2676994502544403,0.23227214813232422,0.3262784481048584,0.12527351081371307,0.05680691823363304,-0.14175118505954742,-0.14404788613319397,-0.0039965189062058926,0.0872003436088562,0.39367038011550903,-0.1022198423743248,0.04260793700814247,0.23874004185199738,-0.10205072164535522,0.168207585811615,-0.1105135828256607,0.06805220246315002,0.4888807535171509,0.4794631898403168,0.05723799392580986,0.0057808831334114075,0.005661035422235727,0.05039983242750168,0.0176739152520895,-0.07279620319604874,0.3268105387687683,0.062235474586486816,0.12150869518518448,0.19981102645397186,0.18318559229373932,0.040501248091459274,0.18363554775714874,0.26166585087776184,0.22140422463417053,0.5182113647460938,0.46888890862464905,-0.11793407052755356,0.21026094257831573,0.03639080375432968,-0.011467590928077698,-0.22963419556617737,-0.27674418687820435,-0.11360817402601242,-0.3923664391040802,-0.19100448489189148,-0.2947218120098114,0.1056177169084549,0.013665499165654182,0.009842002764344215,0.21409711241722107,0.26935383677482605,0.1303088515996933,0.027429979294538498,0.19409266114234924,-0.18403881788253784,-0.0474562868475914,-0.21692220866680145,-0.19830204546451569,-0.12672816216945648,-0.31160619854927063,-0.06268760561943054,-0.3011045753955841,0.023225532844662666,0.046157464385032654,0.06525712460279465,-0.24529826641082764,-0.22966532409191132,0.1806262731552124,-0.09516382217407227,0.13656280934810638,0.18835128843784332,-0.0969386175274849,0.04603645205497742,-0.00901355966925621,-0.4539032578468323,-0.12549898028373718,-0.3316487669944763,-0.17972677946090698,0.08492535352706909,-0.0660393238067627,0.1992858499288559,-0.0026723169721663,-0.12153249233961105,0.018125399947166443,-0.12669524550437927,0.10890331119298935,0.17024026811122894,0.0037930256221443415,0.003919389098882675,0.08441566675901413,0.029546687379479408,-0.07967343926429749,-0.23054134845733643,-0.06139754131436348,-0.15589433908462524,0.12463154643774033,0.18048469722270966,-0.03658870980143547,-0.12148333340883255,0.03479045256972313,-0.10795164108276367,0.15054473280906677,0.15907207131385803,0.04751691222190857,-0.013470695354044437,-0.1602841466665268,0.029742669314146042,0.026122048497200012,-0.05106298252940178,0.13265345990657806,0.010561512783169746,-0.0931229293346405,0.09282143414020538,-0.14069421589374542,0.14502392709255219,0.07893792539834976,0.020858759060502052,0.19706186652183533],[0.04842958226799965,-0.10136301815509796,-0.07088084518909454,-0.09842313826084137,0.07237647473812103,-0.026818441227078438,0.09551308304071426,-0.1036200076341629,-0.1841202974319458,0.14571961760520935,-0.05574147403240204,-0.004471684340387583,-0.03697718307375908,0.07296574860811234,-0.08966996520757675,0.17598801851272583,-0.14006564021110535,0.05869590863585472,0.11681653559207916,0.16501839458942413,0.021201595664024353,0.020984597504138947,0.0861574038863182,-0.13011468946933746,-0.2118528038263321,0.00527594331651926,-0.10867282748222351,-0.0443577840924263,-0.11984480172395706,0.028285587206482887,-0.08419795334339142,0.15403901040554047,0.08206801861524582,-0.06772599369287491,0.11448512971401215,-0.14282642304897308,0.18164882063865662,0.016519391909241676,0.13157159090042114,-0.04285408928990364,0.10531025379896164,-0.018671337515115738,-0.23834513127803802,-0.05524025484919548,0.12914970517158508,0.17490726709365845,-0.17806892096996307,0.045348238199949265,0.17699715495109558,0.18076486885547638,0.16789250075817108,0.010483677498996258,0.3068263530731201,0.3548898994922638,0.27063241600990295,0.10414716601371765,-0.06946857273578644,-0.12561902403831482,-0.16420245170593262,0.14561979472637177,-0.09607511758804321,0.10392052680253983,0.15925690531730652,0.1357431411743164,-0.08180540055036545,-0.18098457157611847,-0.04815248027443886,-0.1035395935177803,0.27244672179222107,0.3427260220050812,0.02252708189189434,-0.05862510949373245,-0.4534260034561157,-0.03415166586637497,-0.2704363465309143,-0.34468966722488403,-0.205521360039711,-0.08029565215110779,-0.01720399409532547,0.10228071361780167,0.09170184284448624,0.15703998506069183,-0.10492057353258133,0.14544661343097687,0.28660979866981506,-0.28561046719551086,-0.12634392082691193,0.05478539317846298,0.19643989205360413,0.22171048820018768,-0.08529279381036758,0.00047713358071632683,0.0827566608786583,0.03442104533314705,0.10035903751850128,0.16913650929927826,-0.054880596697330475,0.08898628503084183,0.13365913927555084,0.027897149324417114,0.13294796645641327,0.28061094880104065,0.28088250756263733,-0.287529319524765,-0.12323161214590073,0.0870925560593605,0.12507955729961395,0.1010112538933754,0.17544673383235931,0.1167827621102333,-0.047822948545217514,0.054039593786001205,0.027936406433582306,0.27483949065208435,0.19959384202957153,0.30359551310539246,0.2154657542705536,0.17928187549114227,0.1525934636592865,-0.17021287977695465,-0.3066166937351227,-0.19354376196861267,-0.08367299288511276,0.14800052344799042,0.09785794466733932,-0.0010538122151046991,-0.07725775241851807,-0.05256713926792145,0.1793162226676941,0.00623738206923008,-0.05805036798119545,0.6817150712013245,0.7467923760414124,0.6114370822906494,0.42523810267448425,-0.44070935249328613,-0.35499611496925354,0.1899913102388382,0.30823761224746704,0.3063714802265167,0.3878781497478485,0.39279836416244507,0.2525814473628998,-0.15555085241794586,-0.1346740871667862,0.2266334444284439,0.0800105556845665,0.6454644799232483,0.46300292015075684,-0.003909768536686897,-0.23054398596286774,-0.1945803314447403,0.1330384463071823,-0.029842598363757133,0.1290655881166458,0.5342010855674744,0.49485695362091064,0.393335223197937,0.22392839193344116,-0.13778617978096008,0.11887092888355255,0.1368386596441269,0.22360825538635254,0.19512839615345,0.19833368062973022,-0.05106328800320625,0.09347847104072571,-0.15027523040771484,-0.06884711235761642,0.10372908413410187,0.42383408546447754,0.5543643236160278,0.20627540349960327,0.41308778524398804,0.14482569694519043,-0.12622420489788055,-0.06324176490306854,-0.3100403845310211,0.08026204258203506,-0.4143925607204437,-0.15685714781284332,-0.3326408267021179,-0.4713321030139923,-0.4541611671447754,0.05189413204789162,0.30289873480796814,0.18018022179603577,0.0680631697177887,0.19325189292430878,0.08345305174589157,0.26208990812301636,-0.043909601867198944,-0.08930923789739609,-0.10611144453287125,-0.42439502477645874,-0.23733636736869812,-0.6161027550697327,-0.3830520212650299,-0.30515843629837036,-0.28137174248695374,-0.2389851063489914,0.011187447234988213,0.03783227130770683,-0.1295352578163147,-0.11469561606645584,-0.16497968137264252,-0.3286137878894806,-0.2550014555454254,0.11007155478000641,-0.19394777715206146,-0.08165611326694489,-0.3561832010746002,-0.45003166794776917,-0.4862770736217499,-0.2533845603466034,-0.4092528820037842,0.19012868404388428,-0.09227178245782852,0.18581244349479675,-0.21656979620456696,-0.3051711916923523,0.11087270081043243,0.037911638617515564,-0.22176674008369446,0.11459255963563919,0.0027208488900214434,-0.16396309435367584,-0.0035984045825898647,-0.16429774463176727,-0.21967372298240662,0.05851702019572258,0.14021186530590057,-0.03331226110458374,-0.17262788116931915,0.0617692731320858,-0.08441782742738724,-0.05123097077012062,0.3439856469631195,-0.0206685159355402,-0.023269329220056534,-0.18452134728431702,-0.12313702702522278,0.13721680641174316,0.004412574227899313,-0.19352467358112335,-0.10205352306365967,0.1279403120279312,0.18472105264663696,-0.030122296884655952,-0.19860531389713287,0.23959264159202576,0.1319476217031479,0.08229522407054901,0.010102678090333939,-0.1190759688615799,0.08202686160802841],[-0.17586548626422882,0.07797751575708389,0.0059312935918569565,-0.03880666196346283,0.17053137719631195,0.14347249269485474,-0.08747656643390656,0.06012359634041786,-0.0578438900411129,0.17353133857250214,-0.059461548924446106,0.07799773663282394,0.18734222650527954,-0.05059327557682991,0.1695382297039032,-0.02095862664282322,-0.19188682734966278,0.13056457042694092,-0.05513279139995575,-0.1487467885017395,0.17084462940692902,0.17079602181911469,-0.024705151095986366,0.0004778439470101148,-0.08348847180604935,0.19259053468704224,0.07831793278455734,0.1753910481929779,0.005770624149590731,0.07097630202770233,-0.09393537044525146,-0.08828770369291306,-0.039795760065317154,-0.12268862128257751,-0.13852636516094208,-0.14513705670833588,-0.01118385884910822,0.08535422384738922,0.276983380317688,0.14244738221168518,-0.1031751036643982,-0.1512243002653122,-0.06238666921854019,0.17466682195663452,-0.1609100103378296,0.09900900721549988,-0.05870671197772026,0.11605130136013031,0.1606602966785431,-0.06391311436891556,-0.11188232898712158,-0.007472564931958914,0.12839679419994354,0.1876358538866043,0.09569965302944183,0.06264109909534454,-0.12723860144615173,-0.12325797230005264,-0.13483481109142303,0.09129805862903595,-0.21873736381530762,-0.17313748598098755,0.18666553497314453,-0.023332852870225906,0.14935338497161865,0.04522014781832695,0.028861206024885178,0.024498777464032173,0.3986452519893646,0.3079317510128021,0.08430124819278717,0.10973216593265533,0.27115747332572937,-0.1404363512992859,0.00573083758354187,-0.007369217928498983,-0.18709063529968262,0.0986514464020729,0.07871781289577484,0.15079498291015625,-0.18148696422576904,0.18679355084896088,0.18026235699653625,0.15657992660999298,0.3933609426021576,0.16431279480457306,0.1958676427602768,0.1719740480184555,0.12165702879428864,0.18828482925891876,0.02538166381418705,0.14829760789871216,0.015898901969194412,0.012681945227086544,0.06077596917748451,-0.10434651374816895,0.0078022535890340805,0.05470643192529678,0.23900452256202698,-0.03497370332479477,-0.33047232031822205,-0.1754409223794937,-0.34370681643486023,-0.17462271451950073,0.09854553639888763,-0.037520766258239746,0.04834462329745293,0.12334106862545013,0.27736392617225647,0.206048384308815,0.09361960738897324,-0.026881884783506393,0.10943493247032166,0.1647028923034668,0.02548050507903099,0.02890883758664131,-0.2095315009355545,-0.16742132604122162,-0.08032472431659698,0.04004418104887009,-0.004344160668551922,0.11265797168016434,0.320974737405777,0.39310315251350403,0.058082908391952515,-0.06954009085893631,-0.11553201079368591,-0.11001357436180115,-0.07367505133152008,-0.15363003313541412,0.06866703927516937,-0.19701574742794037,0.26805996894836426,0.09513279050588608,0.13303235173225403,0.2666725814342499,0.1489201933145523,0.16197508573532104,-0.08487624675035477,0.03722909837961197,-0.13250088691711426,0.17380674183368683,0.1959603726863861,0.07067302614450455,-0.08175589144229889,0.11738701909780502,-0.0011322923237457871,-0.15489381551742554,0.13606886565685272,0.23650744557380676,0.14860349893569946,-0.2810713052749634,-0.11624529212713242,0.0762735903263092,-0.14367714524269104,0.1814681589603424,0.26118341088294983,0.2504587173461914,-0.1346101611852646,0.06577317416667938,0.08362811803817749,0.012162030674517155,-0.0914556235074997,-0.05900684371590614,-0.09037867933511734,-0.1052950844168663,-0.0919899269938469,-0.1626267284154892,0.2985057830810547,0.010565061122179031,0.105514757335186,0.009674597531557083,0.14185497164726257,0.0008078443934209645,0.18955427408218384,-0.008647140115499496,0.11414776742458344,0.19146482646465302,0.25882744789123535,-0.08205805718898773,-0.15603838860988617,0.08478033542633057,-0.18437126278877258,-0.013632460497319698,-0.1304737627506256,-0.07949624955654144,0.01698562689125538,0.022434690967202187,-0.10030313581228256,0.015152242965996265,0.1673261970281601,0.1634836047887802,0.0007327432977035642,-0.19473044574260712,-0.13600920140743256,0.021189235150814056,0.09702951461076736,-0.014561755582690239,-0.054156504571437836,0.031891144812107086,0.017436997964978218,-0.06462611258029938,-0.18766477704048157,-0.11093199253082275,-0.16785791516304016,-0.04480031877756119,-0.05325523018836975,-0.07355272769927979,0.1713850200176239,0.11157657206058502,-0.14952687919139862,-0.1931433230638504,-0.20781956613063812,0.035017386078834534,0.2060539424419403,0.3647753894329071,0.17649681866168976,-0.0485459603369236,-0.06395143270492554,-0.06418101489543915,-0.1827501803636551,0.08405366539955139,-0.23790523409843445,-0.03195637837052345,-0.019649889320135117,-0.06023513525724411,-0.03984157741069794,-0.12710963189601898,-0.16269415616989136,0.174981951713562,0.06383063644170761,0.14189565181732178,0.17439597845077515,0.14156441390514374,0.02775624580681324,0.17350317537784576,-0.23225997388362885,-0.02059231698513031,0.0020532216876745224,-0.018629010766744614,0.11158984154462814,0.16395115852355957,0.002533945022150874,0.1395815759897232,0.041728150099515915,0.23149879276752472,0.23264525830745697,0.06865708529949188,-0.07637818157672882,-0.14659614861011505,0.07316748797893524,0.09981489926576614,0.03721887990832329,-0.08993776142597198,-0.0013059767661616206,-0.007330119144171476],[-0.1413094401359558,0.029668845236301422,0.03832784667611122,0.1328326165676117,-0.18832753598690033,0.17250500619411469,0.020837469026446342,0.14117196202278137,0.025370586663484573,-0.003102340502664447,-0.1341109424829483,-0.14134815335273743,-0.08005861192941666,0.10422957688570023,0.15699417889118195,0.12375697493553162,0.10222744196653366,0.12055949121713638,0.12059076875448227,-0.0032982113771140575,-0.022480498999357224,-0.03244798630475998,0.08224013447761536,-0.001816719537600875,0.06649527698755264,-0.0371965654194355,0.022601434960961342,0.0462878942489624,0.09860213845968246,0.18574212491512299,0.08182501792907715,-0.17280162870883942,0.19310718774795532,0.09795128554105759,-0.15274813771247864,-0.02915726602077484,-0.20631423592567444,-0.06323201954364777,0.04515831172466278,0.49924996495246887,0.3137763440608978,0.22711920738220215,0.23006972670555115,-0.05822242796421051,0.19758225977420807,0.13967347145080566,0.08751137554645538,-0.012100977823138237,-0.08736217767000198,-0.03778219223022461,0.12773919105529785,-0.07603643089532852,0.05448576435446739,-0.41671517491340637,-0.23867939412593842,0.19201260805130005,0.39386019110679626,0.3281925618648529,0.6442699432373047,0.12509319186210632,0.3406236469745636,-0.17178066074848175,-0.09228331595659256,0.032295454293489456,-0.1164577528834343,0.06811036914587021,0.09028604626655579,-0.23609904944896698,-0.24398167431354523,-0.5908219218254089,-0.3217509984970093,0.17366378009319305,0.3579772114753723,-0.07557282596826553,0.27920493483543396,-0.2235083281993866,0.22610962390899658,-0.19187583029270172,0.17812983691692352,-0.03104354813694954,0.12636233866214752,-0.2254454791545868,-0.27903351187705994,-0.6293530464172363,-0.2750934064388275,-0.593398928642273,-0.28767842054367065,-0.005968612153083086,-0.481107234954834,-0.24057334661483765,-0.492156058549881,-0.3233339786529541,-0.03067011944949627,-0.010022102855145931,0.13682404160499573,0.18138080835342407,0.18668751418590546,-0.1558489352464676,-0.12921084463596344,-0.25495243072509766,0.4924923777580261,-0.6834777593612671,0.015820972621440887,0.20960955321788788,-0.10594377666711807,-0.23047971725463867,-0.38335737586021423,-0.3076368272304535,-0.11644183844327927,-0.03679383546113968,-0.0861629918217659,-0.13504156470298767,-0.10818646103143692,0.02241327427327633,-0.13244836032390594,0.29703590273857117,0.4637605845928192,-0.3017626404762268,0.522080659866333,0.5996535420417786,0.10860861837863922,-0.04375246539711952,-0.5756916403770447,-0.7314683794975281,-0.07469363510608673,-0.18695057928562164,0.1169658899307251,-0.04730231314897537,-0.24764344096183777,0.17323820292949677,-0.0159455593675375,0.15363384783267975,0.10486570745706558,-0.2503129839897156,0.3733232915401459,0.899800181388855,0.19366054236888885,0.14783084392547607,-0.06866373866796494,-0.24846623837947845,0.05358117073774338,-0.5311233401298523,0.038228973746299744,-0.0813971534371376,-0.03768526390194893,-0.10000313073396683,0.19643904268741608,0.08416753262281418,0.1999162882566452,-0.021917643025517464,0.13612861931324005,0.4796907305717468,0.5398446321487427,0.39577892422676086,0.041161857545375824,-0.10189894586801529,0.19652432203292847,-0.03831947594881058,0.1081523671746254,0.09691189229488373,0.018589267507195473,-0.2838539183139801,0.09842880815267563,-0.19951148331165314,-0.5418509840965271,-0.574151337146759,-0.6595365405082703,0.30272164940834045,0.18015216290950775,0.6678886413574219,0.3939984440803528,-0.10155472904443741,0.06153596192598343,0.025023264810442924,-0.17867687344551086,-0.24416568875312805,0.09251617640256882,0.2374780774116516,-0.13672389090061188,-0.42784857749938965,-0.470687597990036,-0.5556941032409668,-0.15493592619895935,-0.0018254072638228536,0.6858189702033997,0.5720339417457581,0.07613619416952133,0.023388905450701714,0.03902154043316841,0.2007887363433838,-0.22651714086532593,-0.27074626088142395,0.10142423212528229,0.13563455641269684,0.09666681289672852,0.2244267463684082,0.007925663143396378,-0.3833511471748352,-0.08684927225112915,0.008449832908809185,0.1110714003443718,0.07044745981693268,0.27064377069473267,0.018431562930345535,0.12270843237638474,-0.3131401836872101,-0.13305485248565674,-0.2819620966911316,-0.03855088725686073,0.04424181580543518,0.017244048416614532,0.3436984717845917,0.14087028801441193,-0.25070497393608093,0.04878614470362663,-0.4095524251461029,-0.16481712460517883,-0.4081910252571106,0.5312089920043945,0.12470509856939316,0.045323293656110764,-0.16479961574077606,-0.09355108439922333,-0.044298045337200165,-0.17247696220874786,0.0873752236366272,-0.09900643676519394,0.11771626025438309,-0.10382133722305298,0.2993644177913666,0.34617066383361816,0.4877263009548187,0.18688873946666718,-0.12087830901145935,-0.035377513617277145,0.1879783570766449,-0.049781110137701035,0.19570297002792358,0.017496801912784576,0.10928086936473846,-0.12812809646129608,-0.04310627654194832,0.006222476717084646,0.07421351969242096,-0.044940218329429626,0.0518617108464241,0.15948547422885895,0.06153556704521179,-0.16679498553276062,-0.17781445384025574,-0.09233241528272629,-0.13510873913764954,-0.06411927938461304,-0.13404753804206848,-0.14882200956344604,-0.1360354870557785],[0.041020467877388,-0.026720769703388214,-0.13763514161109924,0.13585956394672394,-0.1777459681034088,0.09761621803045273,-0.15486642718315125,0.15663787722587585,0.048871297389268875,-0.18220841884613037,0.1470513939857483,0.03194757550954819,0.019964445382356644,0.006844788324087858,0.19970965385437012,0.016942163929343224,0.0683717206120491,-0.17618964612483978,-0.04896951839327812,0.06690038740634918,-0.096644327044487,0.159403994679451,0.1211642473936081,0.09053633362054825,0.03024548664689064,-0.05146915465593338,0.00877045001834631,0.16450782120227814,0.06758779287338257,-0.025085344910621643,0.07491891086101532,0.1195766031742096,-0.16717270016670227,0.10948996990919113,0.030642282217741013,0.1301913559436798,0.059015993028879166,-0.0683264285326004,-0.017777448520064354,-0.08448649942874908,0.03620530664920807,-0.19308513402938843,-0.10186625272035599,0.08455800265073776,0.18853747844696045,0.09772253036499023,0.04360737279057503,0.08496148884296417,-0.05153142288327217,-0.01944851689040661,0.11381549388170242,0.07409416139125824,-0.28541913628578186,0.10929366201162338,0.06637747585773468,-0.2096470594406128,0.07509773969650269,-0.18655773997306824,-0.054089538753032684,-0.027926161885261536,0.16577674448490143,0.12715694308280945,-0.12341537326574326,-0.14713265001773834,-0.09254120290279388,-0.1746319979429245,0.07057423144578934,0.16122488677501678,-0.17757953703403473,-0.15462717413902283,-0.03861435130238533,-0.2492714375257492,-0.050880637019872665,0.2681484520435333,0.059789109975099564,0.26048174500465393,-0.037222303450107574,-0.16961804032325745,0.07893552631139755,-0.07217436283826828,0.12326336652040482,0.04154001921415329,0.1650601327419281,0.15814146399497986,-0.18780063092708588,0.06299672275781631,0.24381551146507263,-0.3835603892803192,0.3071402609348297,0.01769155263900757,0.22110237181186676,0.23724117875099182,-0.17221218347549438,-0.0729861781001091,0.13776814937591553,0.08020425587892532,0.0516597181558609,0.049290236085653305,-0.21173638105392456,0.15358933806419373,-0.2713109254837036,0.1411781907081604,-0.008827016688883305,0.13822324573993683,-0.001045714016072452,-0.07932404428720474,0.23806720972061157,0.14438371360301971,0.1077747717499733,0.025738079100847244,-0.09747710078954697,0.03553330525755882,0.11052992939949036,0.17750315368175507,-0.22950893640518188,-0.015075593255460262,-0.24612703919410706,0.052171580493450165,-0.062104541808366776,-0.30966445803642273,0.022924793884158134,0.34752920269966125,0.3240399658679962,0.06565169245004654,-0.07719477266073227,0.10794035345315933,-0.1393222212791443,0.15343061089515686,0.2001686692237854,-0.17211923003196716,0.10905986279249191,-0.43513211607933044,-0.30967557430267334,-0.30679768323898315,-0.3601832091808319,-0.12418190389871597,0.2480219304561615,-0.10751507431268692,-0.16789576411247253,-0.028175774961709976,-0.1177121251821518,-0.0025603685062378645,-0.16140425205230713,0.012596016749739647,0.2356243133544922,-0.19662152230739594,-0.22520144283771515,-0.4687972068786621,-0.26992636919021606,-0.22870607674121857,-0.12997393310070038,-0.5045099258422852,-0.19588398933410645,-0.16185060143470764,-0.3480648696422577,-0.35407668352127075,-0.35723641514778137,0.07225444912910461,0.001829216256737709,-0.17103537917137146,-0.1492442786693573,0.16349785029888153,0.054317232221364975,0.017405245453119278,0.11259924620389938,0.3035796582698822,-0.07928451895713806,-0.09353844076395035,-0.19541291892528534,-0.4938604533672333,-0.5048879384994507,-0.2565498948097229,-0.41000351309776306,-0.3710145354270935,0.06994568556547165,-0.14232885837554932,0.012015637010335922,0.24919487535953522,0.03128461912274361,0.312185138463974,0.3682318925857544,0.6498497724533081,0.25312647223472595,0.5076326727867126,-0.34110233187675476,-0.5693608522415161,0.028028078377246857,-0.06275402754545212,-0.08369330316781998,-0.12223382294178009,0.10244977474212646,-0.026972392573952675,0.11277277022600174,-0.10020460933446884,0.21712863445281982,0.26090845465660095,0.0940183624625206,0.2844778001308441,0.2486536055803299,-0.07160189747810364,-0.042392391711473465,-0.048293888568878174,-0.3908174932003021,0.04812532290816307,-0.020732508972287178,0.20212221145629883,0.28597527742385864,0.03300490975379944,0.08598295599222183,-0.06561039388179779,0.02163299173116684,0.2588873505592346,0.10175734013319016,0.2468426525592804,0.26227009296417236,0.11441667377948761,0.09303510189056396,0.06679976731538773,-0.2851984202861786,-0.021105488762259483,0.49154940247535706,0.06126408651471138,0.04139748960733414,-0.04669378697872162,0.14978469908237457,-0.05207712575793266,0.062030669301748276,0.0799444392323494,0.07979226112365723,-0.0861223042011261,-0.16899220645427704,0.00026842913939617574,-0.14763243496418,-0.009942878037691116,0.057349760085344315,0.21973071992397308,0.17676198482513428,-0.1685294508934021,0.03652990236878395,0.10314249247312546,-0.06456538289785385,0.14176705479621887,-0.053530462086200714,-0.17631018161773682,-0.17664368450641632,0.12591581046581268,-0.19815382361412048,-0.020858222618699074,0.06934753805398941,0.2044011354446411,-0.21633899211883545,0.01876678317785263,-0.0989714190363884,0.04753386974334717,0.01563655585050583,0.035591769963502884]],"biases":[0.04121670499444008,-0.027418754994869232,-0.0750470906496048,0.2136644423007965,0.040126632899045944,-0.3549339175224304,-0.4968976676464081,-0.2870161235332489,0.3199659287929535,-0.09264072775840759,0.295990526676178,0.22332952916622162,-0.01887986995279789,-0.1946314424276352,-0.16318576037883759,-0.18660753965377808]},{"weights":[[0.006618086714297533,0.15655165910720825,-0.5706636905670166,-2.4320473670959473,0.4463753402233124,3.119513988494873,-1.1539026498794556,1.1167949438095093,0.5415875315666199,-0.6295562386512756,-1.0659871101379395,0.4086233377456665,1.2217189073562622,-0.15439292788505554,-2.9782965183258057,-0.600867509841919],[-2.8259267807006836,1.924778699874878,-0.5645005702972412,-1.4742405414581299,0.25486260652542114,-1.3464680910110474,0.6180428266525269,1.7278797626495361,-0.6510960459709167,-0.8692368865013123,-0.4374887943267822,-1.5808558464050293,-0.9351323246955872,-1.1975183486938477,2.2683165073394775,-0.6590173244476318],[1.1438511610031128,-0.3943363130092621,-0.5871526598930359,0.16591273248195648,1.610490083694458,-0.558821439743042,-1.093132734298706,-2.3503100872039795,0.49703437089920044,0.47684794664382935,0.3737192153930664,-1.2388925552368164,-2.9538064002990723,-0.5962905883789062,-1.5377171039581299,1.874238133430481],[1.5844870805740356,-2.656935691833496,0.24477848410606384,1.1040289402008057,-1.3010451793670654,-0.555228590965271,2.204341173171997,-0.3187723457813263,-3.073643207550049,-0.2918451726436615,-1.3789392709732056,0.0043684011325240135,-0.7916145920753479,0.39480772614479065,0.8009824752807617,-0.6922356486320496],[-1.331705093383789,-1.2389836311340332,0.7489171624183655,1.7898306846618652,-1.643622875213623,-2.472468376159668,-1.4786103963851929,-1.1406458616256714,1.4835368394851685,-0.7360318303108215,1.1974022388458252,1.1286729574203491,1.2189940214157104,-0.8988094329833984,0.5770034790039062,-1.4336559772491455],[-0.6331828236579895,-0.5006219744682312,-0.45073583722114563,-0.3833198547363281,-0.4821697175502777,-0.4315401017665863,-0.4773518741130829,-0.3309054672718048,-0.42162707448005676,-0.55617356300354,-0.4497845470905304,-0.40351682901382446,-0.5066110491752625,-0.5394048094749451,-0.6938050389289856,-0.5194395780563354],[-0.6309216022491455,-0.4885803759098053,-0.23381966352462769,-0.5874630212783813,-0.33882513642311096,-0.5500591993331909,-0.42843762040138245,-0.41511937975883484,-0.5854700207710266,-0.6030664443969727,-0.17106156051158905,-0.5316194295883179,-0.5451276302337646,-0.6364080905914307,-0.5888064503669739,-0.3029026985168457],[-0.6265366077423096,-0.6662428379058838,-0.3385046422481537,-0.6793456077575684,-0.5817995071411133,-0.6521663069725037,-0.3546214699745178,-0.31044456362724304,-0.41950687766075134,-0.39427778124809265,-0.2459290772676468,-0.45241615176200867,-0.4673990309238434,-0.812133252620697,-0.5782741904258728,-0.49911096692085266],[-0.6539513468742371,-0.7153371572494507,-0.49594172835350037,-0.6455019116401672,-0.39962583780288696,-0.38123974204063416,-0.34876057505607605,-0.28448647260665894,-0.6061214804649353,-0.5867317914962769,-0.3563021719455719,-0.45982423424720764,-0.49683424830436707,-0.7334794402122498,-0.43419092893600464,-0.3855188190937042],[-0.3695223927497864,-0.341862291097641,-0.5577815175056458,-0.47618985176086426,-0.32482069730758667,-0.2778380811214447,-0.31947875022888184,-0.5777551531791687,-0.6284306645393372,-0.6044862866401672,-0.17325326800346375,-0.47854772210121155,-0.6692426800727844,-0.7138181924819946,-0.551369309425354,-0.6481159925460815]],"biases":[-0.8703556656837463,-0.6547000408172607,-0.20554614067077637,-0.38393256068229675,-0.41276437044143677,-0.8910518288612366,-0.8964099287986755,-0.7075434327125549,-0.705680787563324,-0.8530423045158386]}],"inputLookup":null,"inputLookupLength":0,"outputLookup":null,"outputLookupLength":0,"options":{"inputSize":0,"outputSize":0,"binaryThresh":0.5,"hiddenLayers":[16],"activation":"sigmoid"},"trainOpts":{"activation":"sigmoid","iterations":20000,"errorThresh":0.005,"log":true,"logPeriod":100,"leakyReluAlpha":0.01,"learningRate":0.3,"momentum":0.1,"callbackPeriod":10,"timeout":"Infinity","beta1":0.9,"beta2":0.999,"epsilon":1e-8}}